#include "SVM_params.h"
float support_vectors[WEIGTH_DIM][N_FEATURE] = { { -0.15714556497167514, 0.010050535013281542, 0.03530702112362766, 0.0925954745322144, -0.020836721320899178, 0.2233388822226873, 0.2270060410051932, 0.18779524091698274, 0.029478828163831104, 0.10642131612930122, 0.2660204182759231, -0.021760691783856756, -0.0145834457884123, -0.10955686126566784, 0.14569739131910048, -0.10208874090601333, -0.020564250226945593, 0.028240886626927066, 0.5067071384282081, 0.027687638579512612, -0.12384477972206953, -0.1759654310924198, -0.12624857205329026, -0.2625159657375085, 0.043915466220993495, 0.4360836787922269, 0.12105288291457728, 0.15385596856492315, 0.05342727971073004, 0.03069157494164861, 0.016371977921870316, -0.043939180299368524, -0.0642948837482582, -0.11388114211652185, 0.0785022666332617, 0.00929425511490046, -0.07510921589627265, -0.03612656174675128, -0.035364108280148084, 0.011411153312251078, -0.03945416815475967, -0.0879417458258157, -0.0007783311273169232, -0.004923336245846991, 0.01931967674746915, 0.04473066787796415, 0.03190591690930869, -0.0025089862799293323, -0.04319657654603292, 0.02344378998560797, 0.04368800467224486, 0.0012529636543417647, -0.05413786474658415, 0.006614821046709728, -0.008337709081339644, 0.02947654997816933, -0.058239592324137446, 0.0945502800444441, 0.08274265763625509, -0.039878732843189886, -0.06964065349062358, 0.004486472390957492, 0.042749303650032364, 0.08529921426699522, -0.042797436883989855, -0.005358439994279769, 0.004370764590010379, 0.08098634631835612, -0.05202172705767312, -0.08003150025503832, 0.013049673271679066, 0.07787557341168011, -0.09106490946397439, 0.0885513644541154, 0.06952476547351501, -0.03822270768243474, 0.0027469893179658043, 0.012568291163016788, 0.0715871801279512, -0.07054118994323591, 0.22153129635810903, 0.04855329006940501, 0.0338659282542674, -0.09520163228040511, -0.007166574623170493, 0.001030120893993595, -0.005945952204724665, 0.008794587856040158, 0.02010986311050076, -0.008723118759820106, 0.05818726935226554, -0.03921645272148199, -0.0028348008188859, 0.026474797036825076, 0.027375521030144945, 0.011874832083084872, 0.001827048346207273, 0.022302516716951368, 0.009065337062235841, -0.05303258983378262, 0.011453560425031657, -0.04375779887201816, 0.010041083692544802, -0.0019349857305115037, 0.014246528448874213, 0.005051411746932333, 0.017162251406114395, 0.015582112918219863, -0.0013573632429426166, -0.031563835961055484, 0.002870736145377727, -0.010154211522683249, -0.009917112497956161, -0.002333541832653009, -0.014836654587897222, 0.0041110576287518245, -0.0011083611454642667, -0.001454832019922169, -0.02682118727589127, -0.008754368800202594, -0.012052629936221379, 0.00768687124558959, -0.0010618494284232647, -0.00334612994603896, -0.0017712284673897256, 0.0055454559607089685, 0.026729394073302166, 0.02654977037640507, 0.007863630794807985, -0.02329046245231146, -0.010871917056684501, 0.020867941138963304, -0.010086081520006377, 0.014199944607901065, -0.011981781038857317, 0.024290490696547644, 0.010741881912534104, 0.00021705772287872557, 0.0023287441564527893, 0.003378306251846725, -0.0070237172381235335 } };
float bias[WEIGTH_DIM] = { -0.20127602599654454};
