#include "SVM_params.h"
float support_vectors[WEIGTH_DIM][N_FEATURE] = { { 0.3163292365853994, 0.8180167508959482, 0.22445860071344673, -0.06719332356643994, -0.02832481855321978, -0.08635627840852558, 0.04577447553489266, 0.026444836210448616, -0.004440718299807343, 0.008101463197600502, 0.01890792636884601, 0.030162531055192607, 0.12230652123148315, 0.059342569543999156, 0.012775533480379705, -0.017071681848313425, 0.02834458949803802, -0.08297478740007962, -0.0677772228760228, -0.062448942888085356, -0.06411111157572273, -0.07128181930127676, -0.04675641553752154, -0.032651019257043896, 0.007696260898423474, 0.027357525384310983, -0.01993491728333522, -0.03857404889710657, -0.033407609924775726, 0.018163345994548784, -0.016573407239254004, 0.014183060666545656, 0.015909895770087196, 0.0070775078685582395, 0.05329057232336759, -0.001215917946689013, 0.01750460921366301, 0.031328950103143766, 0.05592337133408238, -0.02151831728198974, -0.013223640238698, -0.035009071643051094, -0.012435244606369201, -0.01712016467909332, 0.0019058428742986296, -0.0005977781666492921, 0.0014288470717157826, 0.011484413416893163, -0.019335016915189143, -0.01471896876572371, 0.02875878127475226, 0.014340574115645455, -0.026577321223395466, 0.004277640328229242, 0.01959760957687149, -0.001845402507123867, 0.019950643900765806, 0.006192885977722499, -0.03319030207914327, -0.05027471643518101, -0.04260400214395314, -0.037083447379322405, -0.03680203608842671, -0.02872617882787549, 0.0011501628839656688, 0.001196409520432049, -0.07525828729039068, -0.03975479460244082, -0.03935760305291981, -0.038503316680411986, -0.03970707828233799, -0.04589253206622469, -0.03615659382417762, -0.014837420377229175, 0.02154851368701461, 0.06888023114532553, 0.04314199611757737, 0.0393160792888936, -0.002485408639472253, 0.05324766646215339, 0.04134817737248711, 0.03796860970151435, 0.02931347967550334, 0.0738529045524469, 0.029901642422982194, 0.056212489565078474, 0.0007322861955984657, -0.018184087243577417, 0.03169777166923727, -0.026531630550239275, -0.01311541537936021, 0.017841814169468825, 0.005960007861901917, -0.06183869303557705, -0.04016026062742494, 0.0006465472289867059, 0.020956733814324446, -0.019402749520515798, 0.005354815797378765, 0.01604442513033706, -0.060087374792481475, 0.020867362423367605, 0.03436911472326416, 0.004474496340815942, 0.037952740540364224, 0.062053726405222207, 0.025698196663737502, -0.023080763133613097, -0.0023571408147749326, -0.01036373250532129, -0.05308161874782716, -0.0704761171261554, -0.025698318326435547, 0.016965472346013026, 0.012170072375414518, 0.021306149738998553, 0.015226964962591804, 0.013186139894390282, 0.016862852246051555, 0.03424337781207633, 0.06723116401956347, 0.11123915083930346, 0.1557381208867405, 0.1442704603076601, 0.107312944998825, 0.08053439985042851, 0.058897029356103275, 0.04261702188285101, -0.03039529842648612, -0.04306444658398232, -0.08242581336325028, -0.07753637995363435, -0.08496523324858773, -0.07637306135154907, -0.05331954400387034, -0.06704842884748052, -0.059832457240208435, -0.05864315443044339, -0.010938231581762992, 0.04254093300430241, 0.14432745903074853, 0.1260947225180106, 0.015331517812903525 } };
float bias[WEIGTH_DIM] = { -0.20124143995993815};
